<?xml version="1.0"?>
<opencv_storage>
<!-- Created using Computer Vision System Toolbox(tm) for MATLAB(R) -->
<!-- Version 9.3.0.713579 (R2017b) -->
<!-- Compatible with OpenCV 3.1 -->
<cascade>
  <stageType>BOOST</stageType>
  <featureType>HOG</featureType>
  <height>41</height>
  <width>32</width>
  <stageParams>
    <boostType>GAB</boostType>
    <minHitRate>9.9500000476837158e-01</minHitRate>
    <maxFalseAlarm>1.0000000149011612e-01</maxFalseAlarm>
    <weightTrimRate>9.4999999999999996e-01</weightTrimRate>
    <maxDepth>1</maxDepth>
    <maxWeakCount>100</maxWeakCount></stageParams>
  <featureParams>
    <maxCatCount>0</maxCatCount>
    <featSize>36</featSize></featureParams>
  <stageNum>6</stageNum>
  <stages>
    <!-- stage 0 -->
    <_>
      <maxWeakCount>2</maxWeakCount>
      <stageThreshold>-1.8073172867298126e-01</stageThreshold>
      <weakClassifiers>
        <_>
          <internalNodes>
            0 -1 6 5.5616669356822968e-02</internalNodes>
          <leafValues>
            -9.6666663885116577e-01 8.1818181276321411e-01</leafValues></_>
        <_>
          <internalNodes>
            0 -1 5 4.3385036289691925e-02</internalNodes>
          <leafValues>
            -1. 7.8593492507934570e-01</leafValues></_></weakClassifiers></_>
    <!-- stage 1 -->
    <_>
      <maxWeakCount>1</maxWeakCount>
      <stageThreshold>8.7878787517547607e-01</stageThreshold>
      <weakClassifiers>
        <_>
          <internalNodes>
            0 -1 2 2.9879182577133179e-02</internalNodes>
          <leafValues>
            -1. 8.7878787517547607e-01</leafValues></_></weakClassifiers></_>
    <!-- stage 2 -->
    <_>
      <maxWeakCount>1</maxWeakCount>
      <stageThreshold>7.7142858505249023e-01</stageThreshold>
      <weakClassifiers>
        <_>
          <internalNodes>
            0 -1 4 6.9911829195916653e-03</internalNodes>
          <leafValues>
            7.7142858505249023e-01 -1.</leafValues></_></weakClassifiers></_>
    <!-- stage 3 -->
    <_>
      <maxWeakCount>2</maxWeakCount>
      <stageThreshold>-7.0627540349960327e-02</stageThreshold>
      <weakClassifiers>
        <_>
          <internalNodes>
            0 -1 3 3.4579530358314514e-02</internalNodes>
          <leafValues>
            -9.6774190664291382e-01 9.3548387289047241e-01</leafValues></_>
        <_>
          <internalNodes>
            0 -1 1 5.0820000469684601e-02</internalNodes>
          <leafValues>
            -9.6905064582824707e-01 8.9711439609527588e-01</leafValues></_></weakClassifiers></_>
    <!-- stage 4 -->
    <_>
      <maxWeakCount>1</maxWeakCount>
      <stageThreshold>8.7878787517547607e-01</stageThreshold>
      <weakClassifiers>
        <_>
          <internalNodes>
            0 -1 7 3.0360294505953789e-02</internalNodes>
          <leafValues>
            -1. 8.7878787517547607e-01</leafValues></_></weakClassifiers></_>
    <!-- stage 5 -->
    <_>
      <maxWeakCount>1</maxWeakCount>
      <stageThreshold>8.2352942228317261e-01</stageThreshold>
      <weakClassifiers>
        <_>
          <internalNodes>
            0 -1 0 3.4787178039550781e-02</internalNodes>
          <leafValues>
            -1. 8.2352942228317261e-01</leafValues></_></weakClassifiers></_></stages>
  <features>
    <_>
      <rect>
        0 16 8 8 25</rect></_>
    <_>
      <rect>
        4 8 8 8 9</rect></_>
    <_>
      <rect>
        4 8 8 8 21</rect></_>
    <_>
      <rect>
        8 16 8 8 33</rect></_>
    <_>
      <rect>
        8 20 8 8 17</rect></_>
    <_>
      <rect>
        12 0 8 8 27</rect></_>
    <_>
      <rect>
        16 0 8 8 35</rect></_>
    <_>
      <rect>
        0 24 16 8 28</rect></_></features></cascade>
</opencv_storage>
